1000000.0
936000.0
877000.0
821000.0
768000.0
719000.0
674000.0
631000.0
590000.0
553000.0
517000.0
485000.0
454000.0
425000.0
398000.0
372000.0
349000.0
326000.0
306000.0
286000.0
268000.0
251000.0
235000.0
220000.0
206000.0
193000.0
180000.0
169000.0
158000.0
148000.0
139000.0
130000.0
121000.0
114000.0
106000.0
99700.0
93300.0
87400.0
81800.0
76600.0
71700.0
67100.0
62900.0
58900.0
55100.0
51600.0
48300.0
45200.0
42300.0
39600.0
37100.0
34700.0
32500.0
30500.0
28500.0
26700.0
25000.0
23400.0
21900.0
20500.0
19200.0
18000.0
16800.0
15800.0
14800.0
13800.0
12900.0
12100.0
11300.0
10600.0
9940.0
9310.0
8710.0
8150.0
7630.0
7150.0
6690.0
6270.0
5870.0
5500.0
5140.0
4820.0
4510.0
4220.0
3950.0
3700.0
3460.0
3240.0
3040.0
2840.0
2660.0
2490.0
2330.0
2180.0
2050.0
1910.0
1790.0
1680.0
1570.0
1470.0
1380.0
1290.0
1210.0
1130.0
1060.0
991.0
928.0
869.0
813.0
761.0
713.0
667.0
625.0
585.0
548.0
513.0
480.0
450.0
421.0
394.0
369.0
345.0
323.0
303.0
283.0
265.0
248.0
233.0
218.0
204.0
191.0
179.0
167.0
157.0
147.0
137.0
129.0
120.0
113.0
106.0
98.8
92.5
86.6
81.1
75.9
71.1
66.6
62.3
58.3
54.6
51.1
47.9
44.8
41.9
39.3
36.8
34.4
32.2
30.2
28.3
26.5
24.8
23.2
21.7
20.3
19.0
17.8
16.7
15.6
14.6
13.7
12.8
12.0
11.2
10.5
9.85
9.22
8.63
8.08
7.57
7.08
4107.46533
4519.53809
4978.2793
5419.58936
5975.04004
6413.45654
7029.86475
7513.65039
8211.58301
8811.4043
9339.53125
9760.00293
10449.37012
10958.66406
11688.53711
12272.55566
12893.19727
13645.11621
14183.12695
14801.16797
15429.25195
16231.68652
16945.1582
17760.11523
18446.6582
19252.76367
19919.36133
20727.04297
21642.42969
22560.92578
23542.16016
24452.44531
25509.32422
26353.93164
27121.09375
28182.89844
29261.39844
30555.85352
31625.38672
32814.66406
34025.0
34907.22656
36027.5625
37063.57813
38091.17578
39479.30859
40632.14844
42092.25781
42722.10547
43625.17969
44507.60547
45162.80859
46336.15625
47474.85156
48641.20313
49321.86328
50146.98438
50169.32422
51327.89844
51601.38281
52029.02734
52678.94141
53438.46875
54216.17578
54347.64063
54754.00391
54439.60156
54602.78906
55149.31641
55439.35938
55718.83203
55790.69531
55490.72656
55714.91797
55961.41016
56206.91016
56260.05859
55825.1875
55854.69531
56360.95703
56578.91797
56385.52344
56426.08984
56012.02344
56045.85547
56430.79688
56418.72656
56272.27344
55995.1875
55844.31641
55979.74609
56306.35156
56480.85156
55947.39063
55935.01953
55935.06641
55850.69531
55895.58594
55886.13672
55630.35938
55438.0625
55500.55859
55907.45703
55517.87109
55152.96484
55078.79297
55085.19141
55235.63672
55012.90625
54766.71484
54254.41797
54325.75391
54338.25781
54163.12109
54261.47266
53961.51563
53455.05078
53646.57031
53729.63281
53555.64844
53372.10156
53242.35547
52928.95703
53033.90625
53401.05078
52946.15234
52870.83203
52726.99219
52810.82031
53194.66406
53020.36719
52836.20313
52693.71484
52869.82813
53255.05469
53728.23047
53815.17578
53531.74609
53823.85938
54130.49609
54867.89063
55326.16797
55376.34766
55276.55859
55788.21875
56539.21484
57414.39844
57627.62891
57901.72656
58354.58594
59724.59375
60760.85547
61644.50781
61571.40234
62161.54297
63602.28516
64553.73047
66108.60156
66679.91406
67431.57031
67975.15625
69801.13281
71089.74219
72411.97656
72564.35156
74375.57813
75435.71875
76503.22656
76526.32031
78393.58594
78648.55469
81365.88281
81865.29688
81980.1875
85412.90625
85303.99219
86135.36719
87629.51563
89375.11719
89280.50781
91808.05469
-9141.50684
-9560.23535
-9781.07324
-10178.36328
-10394.7998
-10763.98926
-10973.36621
-11546.28125
-11757.85059
-12010.69434
-12278.13574
-12611.1875
-12715.08301
-13087.33398
-13322.20117
-13744.25391
-13991.9834
-14287.75293
-14542.30176
-14759.3291
-14942.95215
-15415.74414
-15662.83789
-16060.31641
-16378.73926
-16632.84766
-16751.15625
-17086.84766
-17361.99023
-17801.69336
-18039.54102
-18259.00391
-18419.73633
-18779.57617
-18745.58203
-19020.47461
-19158.98828
-19392.76758
-19583.71875
-19752.16992
-19710.27148
-19527.44727
-19399.18164
-19410.07813
-19213.16406
-19039.28516
-18923.50977
-18681.23438
-18688.27344
-18147.66992
-17732.75391
-16996.29492
-16802.63477
-15704.39648
-15637.35742
-14815.04492
-14430.14746
-13833.31543
-13323.02637
-12454.41016
-11764.46973
-11187.24219
-10547.35938
-9988.55762
-9552.32813
-8931.79297
-8403.50781
-7997.54004
-7674.68848
-6944.79785
-6744.49365
-6247.91211
-5735.87256
-5323.28809
-5284.29492
-4483.02979
-4248.10791
-3997.29688
-4183.52686
-3741.05127
-3507.1665
-3000.33813
-3070.56958
-2504.15137
-2396.37939
-2122.51709
-1969.02075
-1773.28259
-1963.47095
-1882.89807
-1553.13452
-1228.11304
-1219.6283
-928.23639
-978.62
-821.32678
-887.67249
-415.41266
-414.60867
-234.71297
-321.54932
-211.53767
-199.85678
-276.2601
-147.34612
-145.1295
-51.40088
-213.00554
-194.93889
-86.68003
-31.40385
-237.39458
-406.49619
-355.3356
-388.36948
-481.03848
-529.5495
-391.67877
-868.42548
-871.85321
-952.09485
-1344.94946
-1585.61194
-1689.43311
-2274.27417
-2284.9541
-2643.85083
-2639.77759
-3290.91626
-3617.44189
-3910.16406
-4199.81885
-4505.31836
-4815.81445
-5654.93848
-6222.25195
-6420.354
-6925.02783
-7573.00781
-7949.09033
-8601.26367
-9030.58301
-9737.29199
-10138.48242
-10852.65137
-11204.99316
-12069.30957
-12696.42383
-13211.47461
-13459.87402
-14400.77344
-15163.5166
-15774.80664
-16266.61426
-16902.05859
-17179.16406
-18240.2207
-18590.38672
-19203.38867
-19490.09961
-19795.78125
-20291.47461
-21202.85156
-21060.32227
-21973.29297
-21914.14648
-22652.63281
-22210.54492
-23005.83203
-23919.92188
-24365.67773
-24599.76367
-23547.84766
-25171.11133
-25865.19141
-24344.98242
-26107.38477
-25125.13672
-27065.00391
-26286.6875
-26307.49023
